public class Model {
    public static double score(double[] input) {
        double var0;
        if (input[3] <= 0.06116499751806259) {
            if (input[4] <= -0.02458500023931265) {
                if (input[0] <= -0.022754999808967113) {
                    var0 = 0.06484000000000023;
                } else {
                    if (input[4] <= -0.028219999745488167) {
                        if (input[0] <= -0.003324999939650297) {
                            if (input[1] <= -0.021389999776147306) {
                                var0 = -0.0027400000000001867;
                            } else {
                                var0 = -0.01668999999999965;
                            }
                        } else {
                            if (input[4] <= -0.029020000249147415) {
                                if (input[0] <= 0.00279000005684793) {
                                    if (input[4] <= -0.03175499942153692) {
                                        if (input[3] <= -0.007685000076889992) {
                                            var0 = -0.0013500000000004064;
                                        } else {
                                            var0 = -0.0011799999999997368;
                                        }
                                    } else {
                                        var0 = -0.002000000000000668;
                                    }
                                } else {
                                    var0 = 0.0010199999999995768;
                                }
                            } else {
                                var0 = 0.004569999999999297;
                            }
                        }
                    } else {
                        if (input[3] <= -0.00433499994687736) {
                            if (input[0] <= 0.00654000008944422) {
                                if (input[4] <= -0.02749000024050474) {
                                    var0 = 0.03190999999999988;
                                } else {
                                    if (input[0] <= 0.00203999993391335) {
                                        var0 = 0.025089999999999613;
                                    } else {
                                        var0 = 0.0284399999999998;
                                    }
                                }
                            } else {
                                if (input[3] <= -0.009834999917075038) {
                                    var0 = 0.006800000000000139;
                                } else {
                                    var0 = 0.011860000000000426;
                                }
                            }
                        } else {
                            if (input[4] <= -0.025779999792575836) {
                                if (input[0] <= 0.004525000229477882) {
                                    var0 = 0.0023699999999999832;
                                } else {
                                    var0 = 0.001960000000000406;
                                }
                            } else {
                                var0 = -0.0049399999999995;
                            }
                        }
                    }
                }
            } else {
                if (input[4] <= -0.005025000078603625) {
                    if (input[0] <= -0.014365000184625387) {
                        if (input[3] <= 0.016399999614804983) {
                            if (input[4] <= -0.012744999956339598) {
                                if (input[4] <= -0.016900000162422657) {
                                    if (input[1] <= -0.009765000315383077) {
                                        var0 = -0.007920000000000371;
                                    } else {
                                        if (input[4] <= -0.020600000396370888) {
                                            var0 = -0.0003700000000002035;
                                        } else {
                                            var0 = -0.0015099999999996783;
                                        }
                                    }
                                } else {
                                    if (input[1] <= 0.0019249999895691872) {
                                        var0 = -0.03900000000000059;
                                    } else {
                                        var0 = -0.016939999999999955;
                                    }
                                }
                            } else {
                                if (input[1] <= -0.010174999944865704) {
                                    if (input[3] <= -0.009449999779462814) {
                                        var0 = 0.006380000000000052;
                                    } else {
                                        var0 = 0.012900000000000134;
                                    }
                                } else {
                                    if (input[2] <= 0.005670000100508332) {
                                        if (input[4] <= -0.007705000229179859) {
                                            if (input[4] <= -0.01066999975591898) {
                                                var0 = -0.0029000000000003467;
                                            } else {
                                                if (input[0] <= -0.016164999920874834) {
                                                    if (input[2] <= -0.0002000001259148121) {
                                                        var0 = 0.004699999999999704;
                                                    } else {
                                                        var0 = 0.005980000000000096;
                                                    }
                                                } else {
                                                    var0 = 0.0030799999999997496;
                                                }
                                            }
                                        } else {
                                            if (input[4] <= -0.005785000044852495) {
                                                if (input[1] <= -0.00273999989440199) {
                                                    var0 = -0.0029799999999999827;
                                                } else {
                                                    if (input[4] <= -0.00646000006236136) {
                                                        var0 = 0.0;
                                                    } else {
                                                        var0 = 0.0004999999999997229;
                                                    }
                                                }
                                            } else {
                                                if (input[4] <= -0.005525000160560012) {
                                                    if (input[2] <= 0.0005450000753626227) {
                                                        var0 = -0.004699999999999704;
                                                    } else {
                                                        var0 = -0.004119999999999457;
                                                    }
                                                } else {
                                                    var0 = -0.0018200000000003769;
                                                }
                                            }
                                        }
                                    } else {
                                        if (input[0] <= -0.01874000020325184) {
                                            if (input[3] <= 0.0022150000440888107) {
                                                var0 = -0.006059999999999732;
                                            } else {
                                                var0 = -0.006289999999999907;
                                            }
                                        } else {
                                            var0 = -0.004990000000000272;
                                        }
                                    }
                                }
                            }
                        } else {
                            if (input[3] <= 0.026889999397099018) {
                                var0 = -0.037209999999999965;
                            } else {
                                var0 = -0.04103999999999974;
                            }
                        }
                    } else {
                        if (input[1] <= 0.004204999888315797) {
                            if (input[0] <= 0.04821999929845333) {
                                if (input[0] <= 0.04198499955236912) {
                                    if (input[1] <= -0.002964999992400408) {
                                        if (input[3] <= 0.0053250000346452) {
                                            if (input[0] <= 0.013260000385344028) {
                                                if (input[2] <= 0.004729999927803874) {
                                                    if (input[4] <= -0.005134999984875321) {
                                                        if (input[1] <= -0.025189999490976334) {
                                                            var0 = -0.011979999999999436;
                                                        } else {
                                                            if (input[2] <= 0.00419000000692904) {
                                                                if (input[0] <= 0.008655000012367964) {
                                                                    var0 = 0.0010314999999999851;
                                                                } else {
                                                                    var0 = -0.0044460000000000836;
                                                                }
                                                            } else {
                                                                if (input[4] <= -0.010580000001937151) {
                                                                    var0 = -0.0034250000000000114;
                                                                } else {
                                                                    var0 = -0.007790000000000408;
                                                                }
                                                            }
                                                        }
                                                    } else {
                                                        if (input[3] <= -0.005569999921135604) {
                                                            var0 = -0.013510000000000133;
                                                        } else {
                                                            if (input[4] <= -0.005055000074207783) {
                                                                if (input[0] <= -0.0013299999409355223) {
                                                                    var0 = -0.002929999999999655;
                                                                } else {
                                                                    var0 = 0.00020500000000023277;
                                                                }
                                                            } else {
                                                                if (input[3] <= 0.0007200000181910582) {
                                                                    var0 = -0.00709999999999944;
                                                                } else {
                                                                    var0 = -0.0080600000000004;
                                                                }
                                                            }
                                                        }
                                                    }
                                                } else {
                                                    if (input[1] <= -0.018389999866485596) {
                                                        var0 = 0.024479999999999613;
                                                    } else {
                                                        if (input[1] <= -0.0030350000597536564) {
                                                            if (input[0] <= -0.001125000009778887) {
                                                                if (input[4] <= -0.01361499959602952) {
                                                                    var0 = -0.01485000000000003;
                                                                } else {
                                                                    var0 = 0.0019993333333332567;
                                                                }
                                                            } else {
                                                                if (input[3] <= -0.0011749999830499291) {
                                                                    var0 = 0.005870000000000298;
                                                                } else {
                                                                    var0 = 0.003410769230769166;
                                                                }
                                                            }
                                                        } else {
                                                            var0 = -0.012489999999999668;
                                                        }
                                                    }
                                                }
                                            } else {
                                                if (input[1] <= -0.008320000022649765) {
                                                    if (input[4] <= -0.021079999394714832) {
                                                        var0 = -0.010010000000000296;
                                                    } else {
                                                        if (input[0] <= 0.01473500020802021) {
                                                            if (input[3] <= -0.0065799999865703285) {
                                                                var0 = 0.0019900000000001583;
                                                            } else {
                                                                var0 = 0.0021300000000001873;
                                                            }
                                                        } else {
                                                            if (input[0] <= 0.02438999991863966) {
                                                                if (input[0] <= 0.019680000375956297) {
                                                                    var0 = -0.0007900000000002905;
                                                                } else {
                                                                    var0 = -0.0018700000000002603;
                                                                }
                                                            } else {
                                                                if (input[1] <= -0.009210000280290842) {
                                                                    var0 = 0.00021000000000004349;
                                                                } else {
                                                                    var0 = 0.0005399999999999849;
                                                                }
                                                            }
                                                        }
                                                    }
                                                } else {
                                                    if (input[2] <= -0.0010850001126527786) {
                                                        var0 = -0.00020000000000042206;
                                                    } else {
                                                        if (input[2] <= 0.004459999967366457) {
                                                            var0 = -0.007690000000000197;
                                                        } else {
                                                            if (input[4] <= -0.011500000255182385) {
                                                                var0 = -0.013169999999999682;
                                                            } else {
                                                                var0 = -0.013390000000000235;
                                                            }
                                                        }
                                                    }
                                                }
                                            }
                                        } else {
                                            if (input[3] <= 0.006345000118017197) {
                                                if (input[4] <= -0.009575000032782555) {
                                                    if (input[0] <= 0.0014400000509340316) {
                                                        if (input[3] <= 0.005695000058040023) {
                                                            var0 = -0.006509999999999572;
                                                        } else {
                                                            var0 = -0.012599999999999945;
                                                        }
                                                    } else {
                                                        if (input[0] <= 0.003714999998919666) {
                                                            var0 = -0.027769999999999406;
                                                        } else {
                                                            var0 = -0.015329999999999622;
                                                        }
                                                    }
                                                } else {
                                                    if (input[2] <= 0.003994999919086695) {
                                                        if (input[0] <= -0.0006799999900977127) {
                                                            var0 = 0.003470000000000084;
                                                        } else {
                                                            if (input[1] <= -0.0032649999484419823) {
                                                                if (input[3] <= 0.005575000075623393) {
                                                                    var0 = -0.0045200000000003016;
                                                                } else {
                                                                    var0 = -0.008797500000000014;
                                                                }
                                                            } else {
                                                                var0 = -0.0029399999999997206;
                                                            }
                                                        }
                                                    } else {
                                                        var0 = 0.006090000000000373;
                                                    }
                                                }
                                            } else {
                                                if (input[2] <= 0.0048599999863654375) {
                                                    if (input[3] <= 0.02043999917805195) {
                                                        if (input[3] <= 0.013894999865442514) {
                                                            if (input[0] <= -0.005714999977499247) {
                                                                var0 = -0.00651000000000046;
                                                            } else {
                                                                if (input[3] <= 0.00776499998755753) {
                                                                    var0 = -0.0005783333333331994;
                                                                } else {
                                                                    var0 = 0.0026488235294118505;
                                                                }
                                                            }
                                                        } else {
                                                            if (input[4] <= -0.01709500001743436) {
                                                                var0 = -0.012109999999999843;
                                                            } else {
                                                                if (input[0] <= 0.003425000002607703) {
                                                                    var0 = -0.0027400000000001867;
                                                                } else {
                                                                    var0 = -0.004129999999999523;
                                                                }
                                                            }
                                                        }
                                                    } else {
                                                        if (input[1] <= -0.03856000117957592) {
                                                            var0 = 0.0;
                                                        } else {
                                                            var0 = 0.02102000000000004;
                                                        }
                                                    }
                                                } else {
                                                    if (input[1] <= -0.014020000118762255) {
                                                        var0 = -0.017300000000000537;
                                                    } else {
                                                        if (input[4] <= -0.015110000036656857) {
                                                            if (input[1] <= -0.009240000275895) {
                                                                var0 = -0.012229999999999741;
                                                            } else {
                                                                var0 = -0.008059999999999512;
                                                            }
                                                        } else {
                                                            if (input[3] <= 0.020695000421255827) {
                                                                if (input[3] <= 0.010345000308007002) {
                                                                    var0 = -0.002474999999999857;
                                                                } else {
                                                                    var0 = -0.008300000000000196;
                                                                }
                                                            } else {
                                                                var0 = 0.004029999999999312;
                                                            }
                                                        }
                                                    }
                                                }
                                            }
                                        }
                                    } else {
                                        if (input[2] <= -0.01566999964416027) {
                                            if (input[4] <= -0.009839999955147505) {
                                                if (input[4] <= -0.01081999996677041) {
                                                    if (input[4] <= -0.01145000010728836) {
                                                        var0 = 0.01272000000000073;
                                                    } else {
                                                        var0 = 0.010310000000000485;
                                                    }
                                                } else {
                                                    if (input[0] <= 0.0016799999866634607) {
                                                        var0 = 0.007020000000000692;
                                                    } else {
                                                        var0 = 0.00262999999999991;
                                                    }
                                                }
                                            } else {
                                                if (input[1] <= 0.002415000053588301) {
                                                    var0 = 0.0297300000000007;
                                                } else {
                                                    var0 = 0.01829000000000036;
                                                }
                                            }
                                        } else {
                                            if (input[3] <= 0.028515000827610493) {
                                                if (input[1] <= 0.00035999999090563506) {
                                                    if (input[1] <= -0.000415000002249144) {
                                                        if (input[4] <= -0.011140000075101852) {
                                                            if (input[4] <= -0.011325000319629908) {
                                                                if (input[0] <= 0.004904999863356352) {
                                                                    var0 = 0.003707419354838802;
                                                                } else {
                                                                    var0 = -0.0015939999999998733;
                                                                }
                                                            } else {
                                                                var0 = 0.040930000000000355;
                                                            }
                                                        } else {
                                                            if (input[2] <= 0.001664999988861382) {
                                                                if (input[0] <= -0.004144999897107482) {
                                                                    var0 = 0.005191333333333444;
                                                                } else {
                                                                    var0 = 0.000897883211678844;
                                                                }
                                                            } else {
                                                                if (input[3] <= 0.011404999997466803) {
                                                                    var0 = -0.0000004918032787863885;
                                                                } else {
                                                                    var0 = -0.007630000000000099;
                                                                }
                                                            }
                                                        }
                                                    } else {
                                                        if (input[0] <= -0.000004999999873689376) {
                                                            if (input[4] <= -0.014599999878555536) {
                                                                if (input[2] <= -0.0006899999862071127) {
                                                                    var0 = -0.0021249999999999325;
                                                                } else {
                                                                    var0 = -0.008439999999999634;
                                                                }
                                                            } else {
                                                                if (input[4] <= -0.010405000299215317) {
                                                                    var0 = 0.005469090909091049;
                                                                } else {
                                                                    var0 = 0.0015192537313433274;
                                                                }
                                                            }
                                                        } else {
                                                            if (input[0] <= 0.001394999970216304) {
                                                                if (input[0] <= 0.0012600000482052565) {
                                                                    var0 = 0.004773043478260811;
                                                                } else {
                                                                    var0 = 0.015204999999999913;
                                                                }
                                                            } else {
                                                                if (input[0] <= 0.005235000047832727) {
                                                                    var0 = -0.00010363636363627552;
                                                                } else {
                                                                    var0 = 0.004616249999999877;
                                                                }
                                                            }
                                                        }
                                                    }
                                                } else {
                                                    if (input[3] <= -0.017424999736249447) {
                                                        var0 = 0.016960000000000086;
                                                    } else {
                                                        if (input[2] <= 0.012455000076442957) {
                                                            if (input[0] <= -0.008874999824911356) {
                                                                if (input[2] <= 0.0013599998783320189) {
                                                                    var0 = -0.004329999999999945;
                                                                } else {
                                                                    var0 = -0.009799999999999365;
                                                                }
                                                            } else {
                                                                if (input[2] <= 0.00520500005222857) {
                                                                    var0 = 0.0009783950617283984;
                                                                } else {
                                                                    var0 = -0.0011509374999999766;
                                                                }
                                                            }
                                                        } else {
                                                            if (input[1] <= 0.0030450000194832683) {
                                                                if (input[2] <= 0.01483000023290515) {
                                                                    var0 = -0.0013700000000005375;
                                                                } else {
                                                                    var0 = 0.005300000000000082;
                                                                }
                                                            } else {
                                                                if (input[0] <= -0.00311999989207834) {
                                                                    var0 = 0.010810000000000208;
                                                                } else {
                                                                    var0 = 0.017600000000000726;
                                                                }
                                                            }
                                                        }
                                                    }
                                                }
                                            } else {
                                                var0 = 0.021930000000000227;
                                            }
                                        }
                                    }
                                } else {
                                    var0 = 0.024650000000000283;
                                }
                            } else {
                                var0 = -0.03413999999999984;
                            }
                        } else {
                            if (input[4] <= -0.005035000154748559) {
                                if (input[2] <= -0.010340000037103891) {
                                    if (input[2] <= -0.029280000366270542) {
                                        var0 = -0.01670999999999978;
                                    } else {
                                        if (input[0] <= 0.016474999487400055) {
                                            if (input[2] <= -0.011880000121891499) {
                                                if (input[1] <= 0.032554998993873596) {
                                                    if (input[0] <= -0.007154999766498804) {
                                                        var0 = 0.010440000000000005;
                                                    } else {
                                                        if (input[3] <= 0.00723500014282763) {
                                                            if (input[0] <= 0.005914999870583415) {
                                                                if (input[3] <= 0.005110000027343631) {
                                                                    var0 = -0.0023050000000000757;
                                                                } else {
                                                                    var0 = -0.00016500000000041481;
                                                                }
                                                            } else {
                                                                if (input[3] <= -0.00193500000750646) {
                                                                    var0 = -0.000300000000000189;
                                                                } else {
                                                                    var0 = 0.004924999999999624;
                                                                }
                                                            }
                                                        } else {
                                                            var0 = 0.010310000000000485;
                                                        }
                                                    }
                                                } else {
                                                    var0 = -0.010870000000000601;
                                                }
                                            } else {
                                                if (input[1] <= 0.006885000038892031) {
                                                    var0 = 0.009310000000000151;
                                                } else {
                                                    if (input[1] <= 0.014424999710172415) {
                                                        var0 = 0.010889999999999844;
                                                    } else {
                                                        var0 = 0.01220999999999961;
                                                    }
                                                }
                                            }
                                        } else {
                                            if (input[0] <= 0.017559999600052834) {
                                                var0 = 0.013690000000000424;
                                            } else {
                                                var0 = 0.014200000000000657;
                                            }
                                        }
                                    }
                                } else {
                                    if (input[0] <= 0.013770000077784061) {
                                        if (input[1] <= 0.014405000023543835) {
                                            if (input[1] <= 0.005134999984875321) {
                                                if (input[0] <= 0.00787500012665987) {
                                                    if (input[3] <= 0.004579999949783087) {
                                                        if (input[0] <= 0.004780000075697899) {
                                                            if (input[3] <= -0.006934999953955412) {
                                                                if (input[1] <= 0.0049149999395012856) {
                                                                    var0 = 0.007420000000000204;
                                                                } else {
                                                                    var0 = -0.00649999999999995;
                                                                }
                                                            } else {
                                                                if (input[0] <= -0.006170000182464719) {
                                                                    var0 = -0.00835499999999989;
                                                                } else {
                                                                    var0 = -0.00203549999999999;
                                                                }
                                                            }
                                                        } else {
                                                            if (input[2] <= 0.003489999973680824) {
                                                                var0 = -0.004889999999999617;
                                                            } else {
                                                                var0 = 0.024430000000000618;
                                                            }
                                                        }
                                                    } else {
                                                        if (input[1] <= 0.004449999891221523) {
                                                            if (input[0] <= 0.0013749999779975042) {
                                                                var0 = -0.008810000000000429;
                                                            } else {
                                                                var0 = -0.006000000000000227;
                                                            }
                                                        } else {
                                                            if (input[0] <= 0.000710000007529743) {
                                                                var0 = -0.014599999999999724;
                                                            } else {
                                                                var0 = -0.01995000000000058;
                                                            }
                                                        }
                                                    }
                                                } else {
                                                    var0 = -0.032280000000000086;
                                                }
                                            } else {
                                                if (input[1] <= 0.005524999927729368) {
                                                    if (input[3] <= -0.010649999603629112) {
                                                        var0 = 0.021780000000000577;
                                                    } else {
                                                        if (input[1] <= 0.0054900001268833876) {
                                                            if (input[3] <= -0.005425000155810267) {
                                                                if (input[4] <= -0.00790000008419156) {
                                                                    var0 = -0.0029900000000004923;
                                                                } else {
                                                                    var0 = -0.0016800000000003479;
                                                                }
                                                            } else {
                                                                if (input[2] <= 0.0025550000136718154) {
                                                                    var0 = 0.0016850000000001586;
                                                                } else {
                                                                    var0 = 0.0036800000000001276;
                                                                }
                                                            }
                                                        } else {
                                                            var0 = 0.010020000000000806;
                                                        }
                                                    }
                                                } else {
                                                    if (input[3] <= -0.016189999878406525) {
                                                        if (input[1] <= 0.005914999870583415) {
                                                            var0 = -0.010609999999999786;
                                                        } else {
                                                            var0 = -0.009470000000000312;
                                                        }
                                                    } else {
                                                        if (input[3] <= -0.004135000053793192) {
                                                            if (input[3] <= -0.005180000094696879) {
                                                                if (input[3] <= -0.011159999761730433) {
                                                                    var0 = 0.005243333333333489;
                                                                } else {
                                                                    var0 = -0.00017899999999988482;
                                                                }
                                                            } else {
                                                                if (input[4] <= -0.006150000030174851) {
                                                                    var0 = 0.008345000000000047;
                                                                } else {
                                                                    var0 = -0.0002300000000001745;
                                                                }
                                                            }
                                                        } else {
                                                            if (input[2] <= 0.009285000152885914) {
                                                                if (input[1] <= 0.00736499996855855) {
                                                                    var0 = 0.0002646341463413449;
                                                                } else {
                                                                    var0 = -0.002278461538461571;
                                                                }
                                                            } else {
                                                                if (input[2] <= 0.01886000018566847) {
                                                                    var0 = 0.006009999999999671;
                                                                } else {
                                                                    var0 = 0.0002849999999998687;
                                                                }
                                                            }
                                                        }
                                                    }
                                                }
                                            }
                                        } else {
                                            if (input[0] <= 0.01104000024497509) {
                                                if (input[2] <= 0.009354999754577875) {
                                                    if (input[4] <= -0.014140000101178885) {
                                                        var0 = -0.01750000000000007;
                                                    } else {
                                                        if (input[4] <= -0.005585000151768327) {
                                                            if (input[2] <= 0.0056099999928846955) {
                                                                if (input[4] <= -0.006920000072568655) {
                                                                    var0 = -0.007700000000000706;
                                                                } else {
                                                                    var0 = -0.006104999999999805;
                                                                }
                                                            } else {
                                                                var0 = -0.004249999999999865;
                                                            }
                                                        } else {
                                                            if (input[2] <= -0.0007949999999254942) {
                                                                var0 = -0.002049999999999663;
                                                            } else {
                                                                var0 = -0.0026700000000001722;
                                                            }
                                                        }
                                                    }
                                                } else {
                                                    var0 = -0.02676000000000034;
                                                }
                                            } else {
                                                if (input[3] <= 0.005740000051446259) {
                                                    var0 = 0.013980000000000103;
                                                } else {
                                                    var0 = 0.0017100000000001003;
                                                }
                                            }
                                        }
                                    } else {
                                        if (input[4] <= -0.008579999906942248) {
                                            if (input[3] <= -0.002505000011296943) {
                                                var0 = -0.025479999999999947;
                                            } else {
                                                if (input[3] <= 0.0007049999840091914) {
                                                    var0 = 0.0008699999999999264;
                                                } else {
                                                    if (input[1] <= 0.005230000009760261) {
                                                        var0 = -0.000300000000000189;
                                                    } else {
                                                        if (input[0] <= 0.023474999703466892) {
                                                            if (input[1] <= 0.007115000160411) {
                                                                var0 = -0.01930999999999994;
                                                            } else {
                                                                if (input[4] <= -0.012039999943226576) {
                                                                    var0 = -0.014210000000000278;
                                                                } else {
                                                                    var0 = -0.01671000000000067;
                                                                }
                                                            }
                                                        } else {
                                                            var0 = -0.0078699999999996;
                                                        }
                                                    }
                                                }
                                            }
                                        } else {
                                            if (input[2] <= 0.004204999891953776) {
                                                if (input[0] <= 0.01849499996751547) {
                                                    var0 = 0.0024800000000002598;
                                                } else {
                                                    var0 = 0.0018599999999997507;
                                                }
                                            } else {
                                                var0 = -0.000860000000000305;
                                            }
                                        }
                                    }
                                }
                            } else {
                                if (input[0] <= 0.0027299998910166323) {
                                    var0 = 0.03483999999999998;
                                } else {
                                    var0 = -0.005779999999999674;
                                }
                            }
                        }
                    }
                } else {
                    if (input[1] <= 0.02496999967843294) {
                        if (input[1] <= 0.024574999697506428) {
                            if (input[3] <= -0.03321000002324581) {
                                if (input[3] <= -0.04656499996781349) {
                                    var0 = -0.012610000000000454;
                                } else {
                                    var0 = -0.02398999999999951;
                                }
                            } else {
                                if (input[0] <= 0.02767500001937151) {
                                    if (input[1] <= -0.04200499877333641) {
                                        if (input[4] <= 0.015024999855086207) {
                                            var0 = 0.006730000000000125;
                                        } else {
                                            var0 = 0.02911000000000019;
                                        }
                                    } else {
                                        if (input[2] <= 0.022990000434219837) {
                                            if (input[1] <= 0.001664999988861382) {
                                                if (input[3] <= -0.02707500010728836) {
                                                    if (input[3] <= -0.02732500061392784) {
                                                        var0 = 0.012030000000000207;
                                                    } else {
                                                        var0 = 0.009039999999999715;
                                                    }
                                                } else {
                                                    if (input[2] <= 0.02139999996870756) {
                                                        if (input[2] <= 0.0055050000082701445) {
                                                            if (input[4] <= 0.016780000180006027) {
                                                                if (input[4] <= 0.015045000240206718) {
                                                                    var0 = 0.00001436720142602482;
                                                                } else {
                                                                    var0 = 0.0053359090909091056;
                                                                }
                                                            } else {
                                                                if (input[4] <= 0.016825000755488873) {
                                                                    var0 = -0.023130000000000095;
                                                                } else {
                                                                    var0 = -0.0016243478260869592;
                                                                }
                                                            }
                                                        } else {
                                                            if (input[1] <= -0.021050000563263893) {
                                                                if (input[1] <= -0.025105000473558903) {
                                                                    var0 = 0.021249999999999325;
                                                                } else {
                                                                    var0 = 0.006015999999999977;
                                                                }
                                                            } else {
                                                                if (input[3] <= -0.0013349999790079892) {
                                                                    var0 = -0.0013040350877192945;
                                                                } else {
                                                                    var0 = -0.00014750692520776673;
                                                                }
                                                            }
                                                        }
                                                    } else {
                                                        if (input[2] <= 0.021909999661147594) {
                                                            if (input[0] <= -0.0030399998649954796) {
                                                                var0 = 0.019919999999999938;
                                                            } else {
                                                                var0 = 0.010940000000000616;
                                                            }
                                                        } else {
                                                            if (input[4] <= 0.010109999915584922) {
                                                                if (input[1] <= -0.008914999896660447) {
                                                                    var0 = -0.0041599999999997195;
                                                                } else {
                                                                    var0 = -0.0005500000000000504;
                                                                }
                                                            } else {
                                                                var0 = 0.0037399999999996325;
                                                            }
                                                        }
                                                    }
                                                }
                                            } else {
                                                if (input[1] <= 0.021664999425411224) {
                                                    if (input[4] <= -0.00496500008739531) {
                                                        if (input[0] <= -0.0005200000014156103) {
                                                            if (input[2] <= 0.001994999998714775) {
                                                                if (input[2] <= -0.00020000000949949026) {
                                                                    var0 = -0.00004000000000026205;
                                                                } else {
                                                                    var0 = 0.004229999999999734;
                                                                }
                                                            } else {
                                                                if (input[2] <= 0.00544500001706183) {
                                                                    var0 = -0.005793333333333391;
                                                                } else {
                                                                    var0 = 0.0006800000000000139;
                                                                }
                                                            }
                                                        } else {
                                                            if (input[2] <= 0.002139999996870756) {
                                                                if (input[0] <= 0.0018999999738298357) {
                                                                    var0 = -0.00820000000000043;
                                                                } else {
                                                                    var0 = -0.002200000000000202;
                                                                }
                                                            } else {
                                                                if (input[3] <= 0.00042999995639547706) {
                                                                    var0 = -0.022370000000000445;
                                                                } else {
                                                                    var0 = -0.021599999999999397;
                                                                }
                                                            }
                                                        }
                                                    } else {
                                                        if (input[3] <= 0.041920000687241554) {
                                                            if (input[1] <= 0.016315000131726265) {
                                                                if (input[4] <= 0.015214999672025442) {
                                                                    var0 = -0.00034969307860946105;
                                                                } else {
                                                                    var0 = -0.0026570833333332913;
                                                                }
                                                            } else {
                                                                if (input[3] <= -0.0030300000216811895) {
                                                                    var0 = -0.00756199999999998;
                                                                } else {
                                                                    var0 = -0.0006989285714285984;
                                                                }
                                                            }
                                                        } else {
                                                            var0 = 0.013399999999999856;
                                                        }
                                                    }
                                                } else {
                                                    if (input[2] <= -0.01345500024035573) {
                                                        if (input[0] <= -0.007330000167712569) {
                                                            var0 = 0.024670000000000414;
                                                        } else {
                                                            var0 = 0.028680000000000483;
                                                        }
                                                    } else {
                                                        if (input[3] <= -0.006120000034570694) {
                                                            var0 = 0.006840000000000401;
                                                        } else {
                                                            if (input[3] <= -0.002680000034160912) {
                                                                var0 = -0.006330000000000169;
                                                            } else {
                                                                if (input[2] <= -0.008760000113397837) {
                                                                    var0 = 0.0008650000000001157;
                                                                } else {
                                                                    var0 = -0.00020333333333303708;
                                                                }
                                                            }
                                                        }
                                                    }
                                                }
                                            }
                                        } else {
                                            if (input[1] <= 0.0008549999911338091) {
                                                if (input[0] <= 0.0011700000031851232) {
                                                    if (input[1] <= -0.024860000237822533) {
                                                        var0 = 0.010960000000000747;
                                                    } else {
                                                        if (input[1] <= 0.0006050000083632767) {
                                                            if (input[4] <= 0.0008999999918160029) {
                                                                if (input[1] <= -0.008385000051930547) {
                                                                    var0 = 0.0015649999999998165;
                                                                } else {
                                                                    var0 = -0.000860000000000305;
                                                                }
                                                            } else {
                                                                if (input[1] <= -0.016660000663250685) {
                                                                    var0 = -0.0025300000000001432;
                                                                } else {
                                                                    var0 = -0.0009120000000002904;
                                                                }
                                                            }
                                                        } else {
                                                            var0 = 0.0052200000000004465;
                                                        }
                                                    }
                                                } else {
                                                    if (input[2] <= 0.02383499965071678) {
                                                        var0 = -0.010240000000000471;
                                                    } else {
                                                        if (input[3] <= 0.0020599999697878957) {
                                                            if (input[0] <= 0.003499999875202775) {
                                                                if (input[4] <= 0.020774999633431435) {
                                                                    var0 = -0.007169999999999455;
                                                                } else {
                                                                    var0 = -0.007470000000000532;
                                                                }
                                                            } else {
                                                                var0 = -0.005819999999999936;
                                                            }
                                                        } else {
                                                            var0 = -0.0034000000000000696;
                                                        }
                                                    }
                                                }
                                            } else {
                                                if (input[1] <= 0.001185000000987202) {
                                                    var0 = -0.028669999999999973;
                                                } else {
                                                    if (input[4] <= -0.00021000008564442396) {
                                                        if (input[2] <= 0.03193000052124262) {
                                                            if (input[3] <= -0.009064999874681234) {
                                                                var0 = -0.004929999999999879;
                                                            } else {
                                                                var0 = -0.0049399999999995;
                                                            }
                                                        } else {
                                                            var0 = -0.003370000000000317;
                                                        }
                                                    } else {
                                                        if (input[2] <= 0.026220000348985195) {
                                                            var0 = -0.01778000000000013;
                                                        } else {
                                                            if (input[2] <= 0.02983500063419342) {
                                                                var0 = -0.010299999999999976;
                                                            } else {
                                                                var0 = -0.013169999999999682;
                                                            }
                                                        }
                                                    }
                                                }
                                            }
                                        }
                                    }
                                } else {
                                    if (input[4] <= 0.00538999994751066) {
                                        if (input[2] <= 0.0013949999993201345) {
                                            if (input[4] <= 0.0007750000222586095) {
                                                if (input[2] <= -0.003904999844962731) {
                                                    var0 = -0.0026000000000001577;
                                                } else {
                                                    var0 = 0.0;
                                                }
                                            } else {
                                                if (input[4] <= 0.0020200000726617873) {
                                                    var0 = 0.005190000000000694;
                                                } else {
                                                    if (input[1] <= 0.0037449999363161623) {
                                                        var0 = 0.0022399999999995757;
                                                    } else {
                                                        var0 = 0.0025800000000000267;
                                                    }
                                                }
                                            }
                                        } else {
                                            if (input[1] <= 0.0014399999636225402) {
                                                if (input[4] <= -0.00011499999527586624) {
                                                    var0 = 0.0011199999999993437;
                                                } else {
                                                    var0 = -0.003750000000000142;
                                                }
                                            } else {
                                                if (input[4] <= 0.000324999971780926) {
                                                    var0 = -0.011200000000000543;
                                                } else {
                                                    var0 = -0.010379999999999612;
                                                }
                                            }
                                        }
                                    } else {
                                        if (input[3] <= -0.00717000022996217) {
                                            if (input[0] <= 0.03394000045955181) {
                                                var0 = -0.009130000000000749;
                                            } else {
                                                var0 = 0.0034100000000005792;
                                            }
                                        } else {
                                            if (input[2] <= -0.03907500160858035) {
                                                var0 = -0.020680000000000476;
                                            } else {
                                                var0 = -0.02181999999999995;
                                            }
                                        }
                                    }
                                }
                            }
                        } else {
                            var0 = 0.025739999999999874;
                        }
                    } else {
                        if (input[2] <= 0.01812999974936247) {
                            if (input[3] <= -0.009845000226050615) {
                                if (input[0] <= -0.001120000146329403) {
                                    var0 = -0.027440000000000353;
                                } else {
                                    var0 = -0.018169999999999575;
                                }
                            } else {
                                if (input[3] <= -0.004900000058114529) {
                                    if (input[4] <= 0.0013799999142065644) {
                                        if (input[3] <= -0.007004999788478017) {
                                            var0 = -0.0006499999999993733;
                                        } else {
                                            var0 = -0.0019400000000002748;
                                        }
                                    } else {
                                        var0 = 0.002489999999999881;
                                    }
                                } else {
                                    if (input[0] <= 0.0006649999995715916) {
                                        if (input[4] <= 0.0024600000760983676) {
                                            if (input[4] <= -0.0004450000124052167) {
                                                if (input[3] <= 0.003324999997857958) {
                                                    var0 = -0.004470000000000418;
                                                } else {
                                                    if (input[1] <= 0.03030500002205372) {
                                                        var0 = -0.005939999999999834;
                                                    } else {
                                                        var0 = -0.005379999999999718;
                                                    }
                                                }
                                            } else {
                                                var0 = -0.011230000000000295;
                                            }
                                        } else {
                                            if (input[1] <= 0.028344999998807907) {
                                                var0 = -0.0010599999999998388;
                                            } else {
                                                var0 = 0.000140000000000029;
                                            }
                                        }
                                    } else {
                                        if (input[3] <= 0.013249999843537807) {
                                            if (input[2] <= 0.006045000161975622) {
                                                if (input[3] <= 0.00012999982573091984) {
                                                    var0 = -0.0106799999999998;
                                                } else {
                                                    var0 = -0.008919999999999817;
                                                }
                                            } else {
                                                var0 = -0.012500000000000178;
                                            }
                                        } else {
                                            var0 = -0.016790000000000305;
                                        }
                                    }
                                }
                            }
                        } else {
                            var0 = 0.019429999999999836;
                        }
                    }
                }
            }
        } else {
            var0 = -0.0659200000000002;
        }
        return var0;
    }
}
