public class Model {
    public static double score(double[] input) {
        double var0;
        if (input[59] <= 0.00013281732390169054) {
            if (input[57] <= 18.5) {
                if (input[47] <= 0.10094116814434528) {
                    if (input[1] <= 2.5) {
                        if (input[49] <= 1.5) {
                            var0 = 1.0;
                        } else {
                            var0 = 0.0;
                        }
                    } else {
                        var0 = 1.0;
                    }
                } else {
                    var0 = 0.0;
                }
            } else {
                if (input[19] <= 5.5) {
                    if (input[16] <= 2.6488927602767944) {
                        if (input[55] <= 3.5) {
                            if (input[29] <= 1.9615308046340942) {
                                if (input[35] <= 0.3587728291749954) {
                                    if (input[47] <= 0.5552820935845375) {
                                        if (input[6] <= -1.6844459772109985) {
                                            var0 = 1.0;
                                        } else {
                                            if (input[55] <= 1.0) {
                                                if (input[9] <= 11.5) {
                                                    var0 = 1.0;
                                                } else {
                                                    var0 = 0.0;
                                                }
                                            } else {
                                                var0 = 1.0;
                                            }
                                        }
                                    } else {
                                        var0 = 0.0;
                                    }
                                } else {
                                    var0 = 1.0;
                                }
                            } else {
                                var0 = 0.0;
                            }
                        } else {
                            var0 = 1.0;
                        }
                    } else {
                        var0 = 0.0;
                    }
                } else {
                    if (input[12] <= -0.24334536492824554) {
                        if (input[21] <= 13.5) {
                            if (input[46] <= -0.803698867559433) {
                                if (input[46] <= -1.8363775610923767) {
                                    if (input[26] <= -2.061755418777466) {
                                        var0 = 1.0;
                                    } else {
                                        if (input[24] <= -1.9200010299682617) {
                                            var0 = 0.0;
                                        } else {
                                            if (input[32] <= -1.8986734747886658) {
                                                var0 = 1.0;
                                            } else {
                                                var0 = 0.0;
                                            }
                                        }
                                    }
                                } else {
                                    if (input[46] <= -0.9994739294052124) {
                                        if (input[6] <= -1.777747094631195) {
                                            if (input[52] <= -1.7830715775489807) {
                                                var0 = 1.0;
                                            } else {
                                                var0 = 0.0;
                                            }
                                        } else {
                                            var0 = 1.0;
                                        }
                                    } else {
                                        if (input[26] <= -1.0036469101905823) {
                                            var0 = 0.0;
                                        } else {
                                            var0 = 1.0;
                                        }
                                    }
                                }
                            } else {
                                if (input[10] <= -0.4757605791091919) {
                                    if (input[50] <= -0.8133787214756012) {
                                        if (input[28] <= -0.7898037731647491) {
                                            var0 = 0.0;
                                        } else {
                                            var0 = 1.0;
                                        }
                                    } else {
                                        if (input[52] <= -0.6961274445056915) {
                                            var0 = 0.0;
                                        } else {
                                            if (input[54] <= -0.6407071352005005) {
                                                var0 = 1.0;
                                            } else {
                                                var0 = 0.0;
                                            }
                                        }
                                    }
                                } else {
                                    if (input[56] <= -0.42429810762405396) {
                                        var0 = 1.0;
                                    } else {
                                        if (input[0] <= -0.2569473385810852) {
                                            if (input[6] <= -0.3235403150320053) {
                                                if (input[16] <= -0.33300721645355225) {
                                                    var0 = 0.0;
                                                } else {
                                                    var0 = 1.0;
                                                }
                                            } else {
                                                var0 = 0.0;
                                            }
                                        } else {
                                            var0 = 1.0;
                                        }
                                    }
                                }
                            }
                        } else {
                            if (input[56] <= -1.8754063248634338) {
                                if (input[40] <= -1.9143463969230652) {
                                    if (input[20] <= -2.061755418777466) {
                                        var0 = 1.0;
                                    } else {
                                        if (input[38] <= -2.045125961303711) {
                                            var0 = 0.0;
                                        } else {
                                            if (input[10] <= -1.9771763682365417) {
                                                var0 = 1.0;
                                            } else {
                                                var0 = 0.0;
                                            }
                                        }
                                    }
                                } else {
                                    var0 = 1.0;
                                }
                            } else {
                                if (input[50] <= -0.7238054275512695) {
                                    if (input[39] <= 19.0) {
                                        if (input[46] <= -0.8815255761146545) {
                                            if (input[36] <= -1.00300133228302) {
                                                if (input[42] <= -1.5852649211883545) {
                                                    if (input[6] <= -1.6401687264442444) {
                                                        if (input[26] <= -1.6871860027313232) {
                                                            if (input[24] <= -1.7027590870857239) {
                                                                if (input[45] <= 18.5) {
                                                                    var0 = 0.0;
                                                                } else {
                                                                    if (input[8] <= -1.82209312915802) {
                                                                        var0 = 0.0;
                                                                    } else {
                                                                        if (input[10] <= -1.7341722249984741) {
                                                                            var0 = 1.0;
                                                                        } else {
                                                                            var0 = 0.0;
                                                                        }
                                                                    }
                                                                }
                                                            } else {
                                                                var0 = 1.0;
                                                            }
                                                        } else {
                                                            var0 = 0.0;
                                                        }
                                                    } else {
                                                        var0 = 1.0;
                                                    }
                                                } else {
                                                    if (input[38] <= -1.4730504155158997) {
                                                        var0 = 0.0;
                                                    } else {
                                                        if (input[6] <= -1.0847548842430115) {
                                                            if (input[10] <= -1.2185614109039307) {
                                                                if (input[12] <= -1.3876821398735046) {
                                                                    if (input[3] <= 11.5) {
                                                                        var0 = 0.0;
                                                                    } else {
                                                                        var0 = 1.0;
                                                                    }
                                                                } else {
                                                                    var0 = 0.0;
                                                                }
                                                            } else {
                                                                var0 = 1.0;
                                                            }
                                                        } else {
                                                            var0 = 0.0;
                                                        }
                                                    }
                                                }
                                            } else {
                                                var0 = 1.0;
                                            }
                                        } else {
                                            if (input[26] <= -0.8114015161991119) {
                                                var0 = 0.0;
                                            } else {
                                                if (input[12] <= -0.7759476006031036) {
                                                    var0 = 1.0;
                                                } else {
                                                    var0 = 0.0;
                                                }
                                            }
                                        }
                                    } else {
                                        var0 = 1.0;
                                    }
                                } else {
                                    if (input[48] <= -0.3235403150320053) {
                                        if (input[22] <= -0.4757605791091919) {
                                            if (input[6] <= -0.6407071352005005) {
                                                var0 = 1.0;
                                            } else {
                                                if (input[46] <= -0.5762956440448761) {
                                                    var0 = 0.0;
                                                } else {
                                                    if (input[26] <= -0.5574752390384674) {
                                                        var0 = 1.0;
                                                    } else {
                                                        var0 = 0.0;
                                                    }
                                                }
                                            }
                                        } else {
                                            var0 = 1.0;
                                        }
                                    } else {
                                        if (input[28] <= -0.29796743392944336) {
                                            if (input[57] <= 20.5) {
                                                if (input[36] <= -0.32191091775894165) {
                                                    var0 = 0.0;
                                                } else {
                                                    var0 = 1.0;
                                                }
                                            } else {
                                                var0 = 0.0;
                                            }
                                        } else {
                                            var0 = 0.0;
                                        }
                                    }
                                }
                            }
                        }
                    } else {
                        if (input[18] <= 0.8114096820354462) {
                            if (input[9] <= 11.5) {
                                if (input[50] <= 0.20553937554359436) {
                                    if (input[50] <= -0.03083945158869028) {
                                        if (input[10] <= -0.019106172490864992) {
                                            var0 = 1.0;
                                        } else {
                                            var0 = 0.0;
                                        }
                                    } else {
                                        var0 = 1.0;
                                    }
                                } else {
                                    if (input[48] <= 0.31578780710697174) {
                                        if (input[12] <= 0.26385945081710815) {
                                            if (input[50] <= 0.21362462639808655) {
                                                var0 = 0.0;
                                            } else {
                                                var0 = 1.0;
                                            }
                                        } else {
                                            var0 = 0.0;
                                        }
                                    } else {
                                        if (input[22] <= 0.5206700265407562) {
                                            var0 = 1.0;
                                        } else {
                                            if (input[36] <= 0.6504530012607574) {
                                                var0 = 0.0;
                                            } else {
                                                var0 = 1.0;
                                            }
                                        }
                                    }
                                }
                            } else {
                                if (input[26] <= 0.7763792276382446) {
                                    if (input[56] <= 0.7146276831626892) {
                                        if (input[10] <= 0.4182870239019394) {
                                            if (input[44] <= 0.34217657148838043) {
                                                if (input[58] <= -0.01914170989766717) {
                                                    if (input[30] <= -0.11345360800623894) {
                                                        if (input[22] <= -0.14401981234550476) {
                                                            if (input[4] <= -0.1875530183315277) {
                                                                if (input[18] <= -0.2224464938044548) {
                                                                    var0 = 1.0;
                                                                } else {
                                                                    if (input[51] <= 19.5) {
                                                                        var0 = 0.0;
                                                                    } else {
                                                                        var0 = 1.0;
                                                                    }
                                                                }
                                                            } else {
                                                                var0 = 1.0;
                                                            }
                                                        } else {
                                                            var0 = 0.0;
                                                        }
                                                    } else {
                                                        var0 = 1.0;
                                                    }
                                                } else {
                                                    if (input[42] <= -0.015264365589246154) {
                                                        var0 = 0.0;
                                                    } else {
                                                        if (input[8] <= 0.0005835737101733685) {
                                                            var0 = 1.0;
                                                        } else {
                                                            if (input[50] <= 0.02540423348546028) {
                                                                var0 = 0.0;
                                                            } else {
                                                                if (input[40] <= 0.1389993205666542) {
                                                                    var0 = 1.0;
                                                                } else {
                                                                    if (input[48] <= 0.15019088238477707) {
                                                                        var0 = 0.0;
                                                                    } else {
                                                                        if (input[6] <= 0.18490424752235413) {
                                                                            var0 = 1.0;
                                                                        } else {
                                                                            if (input[18] <= 0.2299961969256401) {
                                                                                if (input[9] <= 12.5) {
                                                                                    if (input[42] <= 0.2218846082687378) {
                                                                                        var0 = 1.0;
                                                                                    } else {
                                                                                        var0 = 0.0;
                                                                                    }
                                                                                } else {
                                                                                    var0 = 0.0;
                                                                                }
                                                                            } else {
                                                                                if (input[28] <= 0.25403358042240143) {
                                                                                    var0 = 1.0;
                                                                                } else {
                                                                                    if (input[22] <= 0.3250015825033188) {
                                                                                        if (input[6] <= 0.2848999947309494) {
                                                                                            if (input[48] <= 0.24728205054998398) {
                                                                                                if (input[45] <= 18.5) {
                                                                                                    var0 = 0.0;
                                                                                                } else {
                                                                                                    var0 = 1.0;
                                                                                                }
                                                                                            } else {
                                                                                                var0 = 1.0;
                                                                                            }
                                                                                        } else {
                                                                                            var0 = 0.0;
                                                                                        }
                                                                                    } else {
                                                                                        if (input[15] <= 13.5) {
                                                                                            var0 = 1.0;
                                                                                        } else {
                                                                                            if (input[39] <= 18.5) {
                                                                                                if (input[18] <= 0.3232263922691345) {
                                                                                                    var0 = 1.0;
                                                                                                } else {
                                                                                                    var0 = 0.0;
                                                                                                }
                                                                                            } else {
                                                                                                var0 = 1.0;
                                                                                            }
                                                                                        }
                                                                                    }
                                                                                }
                                                                            }
                                                                        }
                                                                    }
                                                                }
                                                            }
                                                        }
                                                    }
                                                }
                                            } else {
                                                if (input[39] <= 17.5) {
                                                    if (input[24] <= 0.38804829120635986) {
                                                        var0 = 0.0;
                                                    } else {
                                                        var0 = 1.0;
                                                    }
                                                } else {
                                                    var0 = 0.0;
                                                }
                                            }
                                        } else {
                                            if (input[28] <= 0.5708487033843994) {
                                                var0 = 1.0;
                                            } else {
                                                if (input[4] <= 0.6692515015602112) {
                                                    var0 = 0.0;
                                                } else {
                                                    var0 = 1.0;
                                                }
                                            }
                                        }
                                    } else {
                                        if (input[30] <= 0.7547347843647003) {
                                            var0 = 0.0;
                                        } else {
                                            if (input[18] <= 0.7915734648704529) {
                                                var0 = 1.0;
                                            } else {
                                                var0 = 0.0;
                                            }
                                        }
                                    }
                                } else {
                                    var0 = 1.0;
                                }
                            }
                        } else {
                            if (input[33] <= 15.5) {
                                if (input[8] <= 0.7968571484088898) {
                                    var0 = 0.0;
                                } else {
                                    if (input[4] <= 1.40402090549469) {
                                        if (input[38] <= 0.8165936470031738) {
                                            if (input[24] <= 0.8261806070804596) {
                                                var0 = 1.0;
                                            } else {
                                                var0 = 0.0;
                                            }
                                        } else {
                                            if (input[10] <= 1.1949548721313477) {
                                                if (input[30] <= 0.9295059740543365) {
                                                    if (input[12] <= 0.902868777513504) {
                                                        var0 = 1.0;
                                                    } else {
                                                        var0 = 0.0;
                                                    }
                                                } else {
                                                    var0 = 1.0;
                                                }
                                            } else {
                                                if (input[30] <= 1.1941777467727661) {
                                                    var0 = 0.0;
                                                } else {
                                                    var0 = 1.0;
                                                }
                                            }
                                        }
                                    } else {
                                        if (input[14] <= 1.7291324734687805) {
                                            if (input[44] <= 1.4403230547904968) {
                                                var0 = 0.0;
                                            } else {
                                                if (input[46] <= 1.4896302223205566) {
                                                    var0 = 1.0;
                                                } else {
                                                    var0 = 0.0;
                                                }
                                            }
                                        } else {
                                            var0 = 1.0;
                                        }
                                    }
                                }
                            } else {
                                if (input[4] <= 0.9723491966724396) {
                                    if (input[56] <= 0.8702599406242371) {
                                        if (input[32] <= 0.7968571484088898) {
                                            var0 = 1.0;
                                        } else {
                                            if (input[6] <= 0.8349297940731049) {
                                                var0 = 0.0;
                                            } else {
                                                if (input[14] <= 0.83894282579422) {
                                                    if (input[8] <= 0.8262324035167694) {
                                                        if (input[45] <= 18.5) {
                                                            var0 = 0.0;
                                                        } else {
                                                            var0 = 1.0;
                                                        }
                                                    } else {
                                                        var0 = 1.0;
                                                    }
                                                } else {
                                                    if (input[51] <= 19.5) {
                                                        if (input[30] <= 0.8731853365898132) {
                                                            var0 = 1.0;
                                                        } else {
                                                            var0 = 0.0;
                                                        }
                                                    } else {
                                                        var0 = 0.0;
                                                    }
                                                }
                                            }
                                        }
                                    } else {
                                        if (input[21] <= 14.5) {
                                            if (input[24] <= 0.9075798988342285) {
                                                var0 = 1.0;
                                            } else {
                                                if (input[38] <= 0.9265742301940918) {
                                                    var0 = 0.0;
                                                } else {
                                                    var0 = 1.0;
                                                }
                                            }
                                        } else {
                                            var0 = 1.0;
                                        }
                                    }
                                } else {
                                    if (input[8] <= 1.009509801864624) {
                                        var0 = 0.0;
                                    } else {
                                        if (input[0] <= 1.174447774887085) {
                                            var0 = 1.0;
                                        } else {
                                            if (input[56] <= 1.3096174001693726) {
                                                var0 = 0.0;
                                            } else {
                                                if (input[42] <= 2.0343828201293945) {
                                                    if (input[27] <= 16.5) {
                                                        if (input[24] <= 1.5524691939353943) {
                                                            if (input[45] <= 18.5) {
                                                                if (input[56] <= 1.3627187609672546) {
                                                                    var0 = 0.0;
                                                                } else {
                                                                    if (input[52] <= 1.46205335855484) {
                                                                        var0 = 1.0;
                                                                    } else {
                                                                        if (input[34] <= 1.4821318984031677) {
                                                                            var0 = 0.0;
                                                                        } else {
                                                                            if (input[54] <= 1.4681653380393982) {
                                                                                var0 = 1.0;
                                                                            } else {
                                                                                var0 = 0.0;
                                                                            }
                                                                        }
                                                                    }
                                                                }
                                                            } else {
                                                                var0 = 1.0;
                                                            }
                                                        } else {
                                                            var0 = 1.0;
                                                        }
                                                    } else {
                                                        var0 = 0.0;
                                                    }
                                                } else {
                                                    var0 = 0.0;
                                                }
                                            }
                                        }
                                    }
                                }
                            }
                        }
                    }
                }
            }
        } else {
            if (input[3] <= 12.5) {
                if (input[45] <= 16.5) {
                    if (input[42] <= 1.5568615198135376) {
                        if (input[51] <= 8.5) {
                            if (input[10] <= -0.36612798273563385) {
                                if (input[29] <= 0.038713231682777405) {
                                    if (input[23] <= 0.027710524387657642) {
                                        var0 = 1.0;
                                    } else {
                                        if (input[22] <= -1.0242433845996857) {
                                            var0 = 0.0;
                                        } else {
                                            if (input[59] <= 1.2011969089508057) {
                                                var0 = 1.0;
                                            } else {
                                                var0 = 0.0;
                                            }
                                        }
                                    }
                                } else {
                                    if (input[13] <= 2.5) {
                                        if (input[36] <= -2.057543992996216) {
                                            var0 = 0.0;
                                        } else {
                                            if (input[29] <= 0.4334584027528763) {
                                                if (input[53] <= 1.99638032913208) {
                                                    if (input[59] <= 0.4392842650413513) {
                                                        var0 = 0.0;
                                                    } else {
                                                        if (input[11] <= 0.2771052420139313) {
                                                            if (input[11] <= 0.22738930583000183) {
                                                                if (input[59] <= 0.6467781662940979) {
                                                                    if (input[6] <= -1.602161169052124) {
                                                                        var0 = 0.0;
                                                                    } else {
                                                                        var0 = 1.0;
                                                                    }
                                                                } else {
                                                                    if (input[17] <= 0.38622674345970154) {
                                                                        if (input[5] <= 0.10957429558038712) {
                                                                            if (input[41] <= 0.6267468482255936) {
                                                                                var0 = 0.0;
                                                                            } else {
                                                                                var0 = 1.0;
                                                                            }
                                                                        } else {
                                                                            var0 = 1.0;
                                                                        }
                                                                    } else {
                                                                        if (input[28] <= -0.9304604232311249) {
                                                                            var0 = 0.0;
                                                                        } else {
                                                                            var0 = 1.0;
                                                                        }
                                                                    }
                                                                }
                                                            } else {
                                                                if (input[47] <= 1.8419891595840454) {
                                                                    var0 = 0.0;
                                                                } else {
                                                                    var0 = 1.0;
                                                                }
                                                            }
                                                        } else {
                                                            if (input[53] <= 0.7511725425720215) {
                                                                if (input[19] <= 1.0) {
                                                                    var0 = 0.0;
                                                                } else {
                                                                    var0 = 1.0;
                                                                }
                                                            } else {
                                                                var0 = 1.0;
                                                            }
                                                        }
                                                    }
                                                } else {
                                                    if (input[17] <= 0.2559148445725441) {
                                                        var0 = 0.0;
                                                    } else {
                                                        var0 = 1.0;
                                                    }
                                                }
                                            } else {
                                                if (input[11] <= 0.24635199457406998) {
                                                    var0 = 0.0;
                                                } else {
                                                    if (input[17] <= 1.1752523183822632) {
                                                        if (input[23] <= 0.3396350368857384) {
                                                            var0 = 0.0;
                                                        } else {
                                                            var0 = 1.0;
                                                        }
                                                    } else {
                                                        if (input[56] <= -0.5988900661468506) {
                                                            var0 = 0.0;
                                                        } else {
                                                            var0 = 1.0;
                                                        }
                                                    }
                                                }
                                            }
                                        }
                                    } else {
                                        if (input[16] <= -1.7122457027435303) {
                                            if (input[35] <= 0.054606033489108086) {
                                                if (input[10] <= -1.8057799339294434) {
                                                    var0 = 0.0;
                                                } else {
                                                    var0 = 1.0;
                                                }
                                            } else {
                                                var0 = 1.0;
                                            }
                                        } else {
                                            if (input[5] <= 1.4780304431915283) {
                                                if (input[53] <= 1.3653711676597595) {
                                                    if (input[11] <= 0.08104875683784485) {
                                                        var0 = 0.0;
                                                    } else {
                                                        if (input[29] <= 0.08530494570732117) {
                                                            var0 = 1.0;
                                                        } else {
                                                            if (input[23] <= 0.0880216658115387) {
                                                                var0 = 0.0;
                                                            } else {
                                                                if (input[47] <= 1.1867982745170593) {
                                                                    if (input[41] <= 0.5095657706260681) {
                                                                        if (input[47] <= 0.43752744793891907) {
                                                                            var0 = 1.0;
                                                                        } else {
                                                                            var0 = 0.0;
                                                                        }
                                                                    } else {
                                                                        var0 = 1.0;
                                                                    }
                                                                } else {
                                                                    if (input[59] <= 1.0908981561660767) {
                                                                        if (input[50] <= -0.675258606672287) {
                                                                            var0 = 1.0;
                                                                        } else {
                                                                            var0 = 0.0;
                                                                        }
                                                                    } else {
                                                                        var0 = 0.0;
                                                                    }
                                                                }
                                                            }
                                                        }
                                                    }
                                                } else {
                                                    if (input[11] <= 0.10812538117170334) {
                                                        var0 = 1.0;
                                                    } else {
                                                        if (input[41] <= 2.3779795169830322) {
                                                            var0 = 0.0;
                                                        } else {
                                                            var0 = 1.0;
                                                        }
                                                    }
                                                }
                                            } else {
                                                var0 = 1.0;
                                            }
                                        }
                                    }
                                }
                            } else {
                                if (input[54] <= -0.24975670129060745) {
                                    if (input[52] <= -0.44320841133594513) {
                                        var0 = 1.0;
                                    } else {
                                        if (input[22] <= -0.290611207485199) {
                                            var0 = 0.0;
                                        } else {
                                            if (input[24] <= -0.2478439286351204) {
                                                if (input[48] <= -0.28939369320869446) {
                                                    var0 = 1.0;
                                                } else {
                                                    var0 = 0.0;
                                                }
                                            } else {
                                                var0 = 0.0;
                                            }
                                        }
                                    }
                                } else {
                                    if (input[48] <= -0.21011970192193985) {
                                        var0 = 1.0;
                                    } else {
                                        if (input[17] <= 0.1603889986872673) {
                                            if (input[53] <= 0.4803278297185898) {
                                                if (input[53] <= 0.18490587174892426) {
                                                    var0 = 1.0;
                                                } else {
                                                    var0 = 0.0;
                                                }
                                            } else {
                                                if (input[53] <= 0.5906658470630646) {
                                                    var0 = 1.0;
                                                } else {
                                                    if (input[53] <= 1.792191743850708) {
                                                        if (input[23] <= 0.31640709936618805) {
                                                            if (input[5] <= 0.49915164709091187) {
                                                                if (input[35] <= 0.09413729980587959) {
                                                                    var0 = 1.0;
                                                                } else {
                                                                    if (input[41] <= 0.33140943944454193) {
                                                                        var0 = 0.0;
                                                                    } else {
                                                                        if (input[29] <= 0.36333388090133667) {
                                                                            if (input[53] <= 1.3414942622184753) {
                                                                                if (input[47] <= 0.4308110922574997) {
                                                                                    var0 = 0.0;
                                                                                } else {
                                                                                    var0 = 1.0;
                                                                                }
                                                                            } else {
                                                                                if (input[11] <= 0.3161022216081619) {
                                                                                    var0 = 0.0;
                                                                                } else {
                                                                                    if (input[42] <= 0.1374390311539173) {
                                                                                        var0 = 0.0;
                                                                                    } else {
                                                                                        var0 = 1.0;
                                                                                    }
                                                                                }
                                                                            }
                                                                        } else {
                                                                            var0 = 0.0;
                                                                        }
                                                                    }
                                                                }
                                                            } else {
                                                                if (input[47] <= 1.386763870716095) {
                                                                    var0 = 1.0;
                                                                } else {
                                                                    if (input[5] <= 1.632952868938446) {
                                                                        var0 = 0.0;
                                                                    } else {
                                                                        var0 = 1.0;
                                                                    }
                                                                }
                                                            }
                                                        } else {
                                                            var0 = 0.0;
                                                        }
                                                    } else {
                                                        if (input[59] <= 4.376409530639648) {
                                                            if (input[5] <= 2.1458871960639954) {
                                                                if (input[11] <= 0.18627328425645828) {
                                                                    var0 = 1.0;
                                                                } else {
                                                                    if (input[18] <= 0.2652408927679062) {
                                                                        var0 = 1.0;
                                                                    } else {
                                                                        var0 = 0.0;
                                                                    }
                                                                }
                                                            } else {
                                                                var0 = 0.0;
                                                            }
                                                        } else {
                                                            var0 = 0.0;
                                                        }
                                                    }
                                                }
                                            }
                                        } else {
                                            if (input[17] <= 0.8324295878410339) {
                                                if (input[5] <= 0.19572444260120392) {
                                                    if (input[53] <= 0.9998639523983002) {
                                                        if (input[47] <= 0.48141753673553467) {
                                                            var0 = 1.0;
                                                        } else {
                                                            var0 = 0.0;
                                                        }
                                                    } else {
                                                        if (input[59] <= 2.142319440841675) {
                                                            var0 = 1.0;
                                                        } else {
                                                            if (input[5] <= 0.14094937592744827) {
                                                                var0 = 0.0;
                                                            } else {
                                                                var0 = 1.0;
                                                            }
                                                        }
                                                    }
                                                } else {
                                                    if (input[5] <= 2.0595167875289917) {
                                                        if (input[47] <= 0.9303068816661835) {
                                                            if (input[41] <= 1.515910565853119) {
                                                                if (input[59] <= 0.496676430106163) {
                                                                    var0 = 0.0;
                                                                } else {
                                                                    if (input[59] <= 0.5784768164157867) {
                                                                        var0 = 1.0;
                                                                    } else {
                                                                        if (input[11] <= 0.26785632967948914) {
                                                                            if (input[47] <= 0.7124411761760712) {
                                                                                if (input[59] <= 0.6691306829452515) {
                                                                                    var0 = 0.0;
                                                                                } else {
                                                                                    var0 = 1.0;
                                                                                }
                                                                            } else {
                                                                                var0 = 0.0;
                                                                            }
                                                                        } else {
                                                                            if (input[47] <= 0.4305817037820816) {
                                                                                var0 = 1.0;
                                                                            } else {
                                                                                if (input[59] <= 1.813430368900299) {
                                                                                    if (input[46] <= 0.994702160358429) {
                                                                                        var0 = 0.0;
                                                                                    } else {
                                                                                        if (input[24] <= 1.029678851366043) {
                                                                                            var0 = 1.0;
                                                                                        } else {
                                                                                            var0 = 0.0;
                                                                                        }
                                                                                    }
                                                                                } else {
                                                                                    var0 = 1.0;
                                                                                }
                                                                            }
                                                                        }
                                                                    }
                                                                }
                                                            } else {
                                                                if (input[35] <= 2.020218014717102) {
                                                                    var0 = 1.0;
                                                                } else {
                                                                    var0 = 0.0;
                                                                }
                                                            }
                                                        } else {
                                                            if (input[53] <= 3.962912917137146) {
                                                                if (input[11] <= 1.0321385264396667) {
                                                                    if (input[41] <= 3.1803712844848633) {
                                                                        if (input[53] <= 0.8431062996387482) {
                                                                            if (input[35] <= 0.32019542157649994) {
                                                                                var0 = 0.0;
                                                                            } else {
                                                                                if (input[17] <= 0.39750415086746216) {
                                                                                    var0 = 1.0;
                                                                                } else {
                                                                                    var0 = 0.0;
                                                                                }
                                                                            }
                                                                        } else {
                                                                            if (input[35] <= 0.06489031948149204) {
                                                                                var0 = 1.0;
                                                                            } else {
                                                                                if (input[6] <= -0.04788784682750702) {
                                                                                    if (input[34] <= -0.08861714974045753) {
                                                                                        var0 = 0.0;
                                                                                    } else {
                                                                                        var0 = 1.0;
                                                                                    }
                                                                                } else {
                                                                                    var0 = 0.0;
                                                                                }
                                                                            }
                                                                        }
                                                                    } else {
                                                                        var0 = 1.0;
                                                                    }
                                                                } else {
                                                                    if (input[8] <= 0.3799901306629181) {
                                                                        var0 = 1.0;
                                                                    } else {
                                                                        if (input[11] <= 1.1053420305252075) {
                                                                            var0 = 1.0;
                                                                        } else {
                                                                            if (input[53] <= 2.148102879524231) {
                                                                                var0 = 0.0;
                                                                            } else {
                                                                                var0 = 1.0;
                                                                            }
                                                                        }
                                                                    }
                                                                }
                                                            } else {
                                                                if (input[22] <= 0.817335456609726) {
                                                                    var0 = 0.0;
                                                                } else {
                                                                    var0 = 1.0;
                                                                }
                                                            }
                                                        }
                                                    } else {
                                                        if (input[35] <= 1.2866648435592651) {
                                                            var0 = 1.0;
                                                        } else {
                                                            var0 = 0.0;
                                                        }
                                                    }
                                                }
                                            } else {
                                                if (input[38] <= 0.6255134046077728) {
                                                    if (input[29] <= 0.2375679388642311) {
                                                        var0 = 1.0;
                                                    } else {
                                                        if (input[59] <= 0.8935225009918213) {
                                                            if (input[23] <= 1.4564537405967712) {
                                                                if (input[35] <= 0.681875079870224) {
                                                                    if (input[28] <= 0.5130295008420944) {
                                                                        var0 = 1.0;
                                                                    } else {
                                                                        var0 = 0.0;
                                                                    }
                                                                } else {
                                                                    if (input[1] <= 3.5) {
                                                                        var0 = 0.0;
                                                                    } else {
                                                                        var0 = 1.0;
                                                                    }
                                                                }
                                                            } else {
                                                                var0 = 1.0;
                                                            }
                                                        } else {
                                                            if (input[4] <= -0.22355230897665024) {
                                                                var0 = 1.0;
                                                            } else {
                                                                var0 = 0.0;
                                                            }
                                                        }
                                                    }
                                                } else {
                                                    if (input[48] <= 0.9427537322044373) {
                                                        if (input[35] <= 0.44740724563598633) {
                                                            if (input[6] <= 0.8085050880908966) {
                                                                if (input[49] <= 2.5) {
                                                                    var0 = 1.0;
                                                                } else {
                                                                    var0 = 0.0;
                                                                }
                                                            } else {
                                                                var0 = 0.0;
                                                            }
                                                        } else {
                                                            if (input[53] <= 0.2732384502887726) {
                                                                var0 = 0.0;
                                                            } else {
                                                                var0 = 1.0;
                                                            }
                                                        }
                                                    } else {
                                                        if (input[54] <= 1.0241530537605286) {
                                                            if (input[52] <= 0.8531570732593536) {
                                                                var0 = 1.0;
                                                            } else {
                                                                if (input[59] <= 1.407422959804535) {
                                                                    var0 = 0.0;
                                                                } else {
                                                                    if (input[26] <= 0.9387903809547424) {
                                                                        var0 = 0.0;
                                                                    } else {
                                                                        var0 = 1.0;
                                                                    }
                                                                }
                                                            }
                                                        } else {
                                                            if (input[53] <= 1.1912386417388916) {
                                                                if (input[35] <= 0.39302459359169006) {
                                                                    var0 = 0.0;
                                                                } else {
                                                                    var0 = 1.0;
                                                                }
                                                            } else {
                                                                if (input[36] <= 1.3058626651763916) {
                                                                    if (input[53] <= 1.4611083269119263) {
                                                                        var0 = 0.0;
                                                                    } else {
                                                                        var0 = 1.0;
                                                                    }
                                                                } else {
                                                                    var0 = 0.0;
                                                                }
                                                            }
                                                        }
                                                    }
                                                }
                                            }
                                        }
                                    }
                                }
                            }
                        } else {
                            if (input[17] <= 0.13797909021377563) {
                                if (input[35] <= 0.8453068137168884) {
                                    if (input[5] <= 0.07285332307219505) {
                                        if (input[5] <= 0.03653986006975174) {
                                            if (input[47] <= 0.6538445949554443) {
                                                if (input[38] <= 1.0075326263904572) {
                                                    var0 = 0.0;
                                                } else {
                                                    var0 = 1.0;
                                                }
                                            } else {
                                                if (input[10] <= 0.9644954800605774) {
                                                    if (input[53] <= 0.49677905440330505) {
                                                        var0 = 0.0;
                                                    } else {
                                                        if (input[29] <= 0.0513157844543457) {
                                                            var0 = 0.0;
                                                        } else {
                                                            var0 = 1.0;
                                                        }
                                                    }
                                                } else {
                                                    var0 = 0.0;
                                                }
                                            }
                                        } else {
                                            if (input[17] <= 0.011108357924968004) {
                                                var0 = 1.0;
                                            } else {
                                                if (input[59] <= 0.3724077045917511) {
                                                    if (input[3] <= 1.5) {
                                                        var0 = 1.0;
                                                    } else {
                                                        var0 = 0.0;
                                                    }
                                                } else {
                                                    if (input[59] <= 1.0834513306617737) {
                                                        var0 = 0.0;
                                                    } else {
                                                        if (input[50] <= 0.13040656596422195) {
                                                            var0 = 0.0;
                                                        } else {
                                                            var0 = 1.0;
                                                        }
                                                    }
                                                }
                                            }
                                        }
                                    } else {
                                        if (input[53] <= 2.1216208934783936) {
                                            if (input[11] <= 0.21136067062616348) {
                                                if (input[11] <= 0.14899688959121704) {
                                                    if (input[29] <= 0.06035943888127804) {
                                                        var0 = 1.0;
                                                    } else {
                                                        if (input[35] <= 0.8021109998226166) {
                                                            if (input[0] <= 1.0888332724571228) {
                                                                if (input[11] <= 0.020556500181555748) {
                                                                    if (input[28] <= -0.1465429663658142) {
                                                                        var0 = 0.0;
                                                                    } else {
                                                                        var0 = 1.0;
                                                                    }
                                                                } else {
                                                                    if (input[8] <= -1.9258949756622314) {
                                                                        var0 = 1.0;
                                                                    } else {
                                                                        if (input[5] <= 0.18636686354875565) {
                                                                            if (input[41] <= 0.2372811734676361) {
                                                                                var0 = 1.0;
                                                                            } else {
                                                                                if (input[29] <= 1.3112813234329224) {
                                                                                    if (input[5] <= 0.09637406468391418) {
                                                                                        if (input[41] <= 0.7597754895687103) {
                                                                                            var0 = 0.0;
                                                                                        } else {
                                                                                            if (input[30] <= 0.23924129456281662) {
                                                                                                var0 = 1.0;
                                                                                            } else {
                                                                                                var0 = 0.0;
                                                                                            }
                                                                                        }
                                                                                    } else {
                                                                                        var0 = 0.0;
                                                                                    }
                                                                                } else {
                                                                                    if (input[16] <= 0.26469477266073227) {
                                                                                        var0 = 0.0;
                                                                                    } else {
                                                                                        var0 = 1.0;
                                                                                    }
                                                                                }
                                                                            }
                                                                        } else {
                                                                            if (input[22] <= 0.7481443285942078) {
                                                                                if (input[29] <= 0.08792204782366753) {
                                                                                    var0 = 0.0;
                                                                                } else {
                                                                                    if (input[11] <= 0.06058281660079956) {
                                                                                        if (input[43] <= 3.0) {
                                                                                            var0 = 0.0;
                                                                                        } else {
                                                                                            var0 = 1.0;
                                                                                        }
                                                                                    } else {
                                                                                        if (input[8] <= -1.8233288526535034) {
                                                                                            var0 = 0.0;
                                                                                        } else {
                                                                                            if (input[45] <= 8.5) {
                                                                                                var0 = 1.0;
                                                                                            } else {
                                                                                                if (input[1] <= 2.5) {
                                                                                                    var0 = 0.0;
                                                                                                } else {
                                                                                                    var0 = 1.0;
                                                                                                }
                                                                                            }
                                                                                        }
                                                                                    }
                                                                                }
                                                                            } else {
                                                                                var0 = 0.0;
                                                                            }
                                                                        }
                                                                    }
                                                                }
                                                            } else {
                                                                var0 = 1.0;
                                                            }
                                                        } else {
                                                            var0 = 1.0;
                                                        }
                                                    }
                                                } else {
                                                    if (input[2] <= -1.8672504425048828) {
                                                        if (input[20] <= -1.9448547959327698) {
                                                            var0 = 1.0;
                                                        } else {
                                                            var0 = 0.0;
                                                        }
                                                    } else {
                                                        if (input[35] <= 0.8091744482517242) {
                                                            var0 = 1.0;
                                                        } else {
                                                            if (input[47] <= 1.1287963390350342) {
                                                                if (input[47] <= 0.597678005695343) {
                                                                    var0 = 1.0;
                                                                } else {
                                                                    var0 = 0.0;
                                                                }
                                                            } else {
                                                                var0 = 1.0;
                                                            }
                                                        }
                                                    }
                                                }
                                            } else {
                                                if (input[11] <= 0.8096363246440887) {
                                                    if (input[35] <= 0.5667556822299957) {
                                                        if (input[17] <= 0.1251561902463436) {
                                                            var0 = 0.0;
                                                        } else {
                                                            if (input[2] <= 0.8265854716300964) {
                                                                var0 = 0.0;
                                                            } else {
                                                                var0 = 1.0;
                                                            }
                                                        }
                                                    } else {
                                                        if (input[47] <= 1.1270304322242737) {
                                                            if (input[53] <= 0.5299562513828278) {
                                                                var0 = 0.0;
                                                            } else {
                                                                var0 = 1.0;
                                                            }
                                                        } else {
                                                            if (input[53] <= 1.4394893050193787) {
                                                                var0 = 0.0;
                                                            } else {
                                                                var0 = 1.0;
                                                            }
                                                        }
                                                    }
                                                } else {
                                                    var0 = 1.0;
                                                }
                                            }
                                        } else {
                                            var0 = 0.0;
                                        }
                                    }
                                } else {
                                    if (input[48] <= -2.1936697959899902) {
                                        var0 = 1.0;
                                    } else {
                                        if (input[35] <= 2.777956008911133) {
                                            if (input[19] <= 1.5) {
                                                if (input[41] <= 0.903308779001236) {
                                                    if (input[34] <= -1.89515620470047) {
                                                        var0 = 1.0;
                                                    } else {
                                                        if (input[53] <= 1.6184214353561401) {
                                                            if (input[5] <= 0.2950989603996277) {
                                                                var0 = 0.0;
                                                            } else {
                                                                if (input[41] <= 0.8112361431121826) {
                                                                    var0 = 0.0;
                                                                } else {
                                                                    var0 = 1.0;
                                                                }
                                                            }
                                                        } else {
                                                            var0 = 1.0;
                                                        }
                                                    }
                                                } else {
                                                    if (input[47] <= 1.4302162528038025) {
                                                        if (input[29] <= 0.5190833210945129) {
                                                            if (input[41] <= 2.247812509536743) {
                                                                var0 = 1.0;
                                                            } else {
                                                                var0 = 0.0;
                                                            }
                                                        } else {
                                                            if (input[53] <= 1.0747910141944885) {
                                                                if (input[18] <= 0.04165847413241863) {
                                                                    if (input[23] <= 0.2680283933877945) {
                                                                        var0 = 0.0;
                                                                    } else {
                                                                        if (input[23] <= 0.7572398781776428) {
                                                                            if (input[4] <= -1.7930220365524292) {
                                                                                var0 = 0.0;
                                                                            } else {
                                                                                if (input[49] <= 0.5) {
                                                                                    if (input[24] <= -1.0523439347743988) {
                                                                                        var0 = 1.0;
                                                                                    } else {
                                                                                        var0 = 0.0;
                                                                                    }
                                                                                } else {
                                                                                    var0 = 1.0;
                                                                                }
                                                                            }
                                                                        } else {
                                                                            var0 = 0.0;
                                                                        }
                                                                    }
                                                                } else {
                                                                    var0 = 1.0;
                                                                }
                                                            } else {
                                                                if (input[53] <= 1.3478785753250122) {
                                                                    var0 = 0.0;
                                                                } else {
                                                                    if (input[17] <= 0.04718637466430664) {
                                                                        var0 = 0.0;
                                                                    } else {
                                                                        if (input[8] <= -1.7158550024032593) {
                                                                            var0 = 0.0;
                                                                        } else {
                                                                            var0 = 1.0;
                                                                        }
                                                                    }
                                                                }
                                                            }
                                                        }
                                                    } else {
                                                        if (input[11] <= 0.03776237927377224) {
                                                            if (input[18] <= -0.42902645468711853) {
                                                                var0 = 1.0;
                                                            } else {
                                                                var0 = 0.0;
                                                            }
                                                        } else {
                                                            if (input[23] <= 0.02754450310021639) {
                                                                var0 = 1.0;
                                                            } else {
                                                                if (input[41] <= 2.8854050636291504) {
                                                                    var0 = 0.0;
                                                                } else {
                                                                    if (input[42] <= 0.007901489734649658) {
                                                                        var0 = 0.0;
                                                                    } else {
                                                                        var0 = 1.0;
                                                                    }
                                                                }
                                                            }
                                                        }
                                                    }
                                                }
                                            } else {
                                                if (input[41] <= 2.2393908500671387) {
                                                    if (input[5] <= 0.008639163337647915) {
                                                        var0 = 1.0;
                                                    } else {
                                                        if (input[5] <= 0.27357351779937744) {
                                                            if (input[46] <= -1.6912075877189636) {
                                                                if (input[44] <= -1.7600591778755188) {
                                                                    if (input[35] <= 2.0311543345451355) {
                                                                        var0 = 0.0;
                                                                    } else {
                                                                        var0 = 1.0;
                                                                    }
                                                                } else {
                                                                    if (input[11] <= 0.0440108310431242) {
                                                                        var0 = 0.0;
                                                                    } else {
                                                                        var0 = 1.0;
                                                                    }
                                                                }
                                                            } else {
                                                                if (input[48] <= 1.3091922998428345) {
                                                                    if (input[12] <= -0.3493273854255676) {
                                                                        if (input[12] <= -0.6356418430805206) {
                                                                            if (input[11] <= 0.0339589761570096) {
                                                                                if (input[56] <= -1.0569247901439667) {
                                                                                    var0 = 0.0;
                                                                                } else {
                                                                                    var0 = 1.0;
